digraph Tree {
node [shape=box] ;
0 [label="checking_balance <= 1.5\nentropy = 0.888\nsamples = 700\nvalue = [486, 214]\nclass = No"] ;
1 [label="months_loan_duration <= 22.5\nentropy = 0.991\nsamples = 378\nvalue = [210, 168]\nclass = No"] ;
0 -> 1 [labeldistance=2.5, labelangle=45, headlabel="True"] ;
2 [label="credit_history <= 0.5\nentropy = 0.925\nsamples = 209\nvalue = [138, 71]\nclass = No"] ;
1 -> 2 ;
3 [label="purpose <= 1.5\nentropy = 0.551\nsamples = 47\nvalue = [41, 6]\nclass = No"] ;
2 -> 3 ;
4 [label="months_loan_duration <= 11.5\nentropy = 0.75\nsamples = 28\nvalue = [22, 6]\nclass = No"] ;
3 -> 4 ;
5 [label="entropy = 0.0\nsamples = 11\nvalue = [11, 0]\nclass = No"] ;
4 -> 5 ;
6 [label="age <= 28.5\nentropy = 0.937\nsamples = 17\nvalue = [11, 6]\nclass = No"] ;
4 -> 6 ;
7 [label="entropy = 0.0\nsamples = 5\nvalue = [5, 0]\nclass = No"] ;
6 -> 7 ;
8 [label="age <= 45.0\nentropy = 1.0\nsamples = 12\nvalue = [6, 6]\nclass = No"] ;
6 -> 8 ;
9 [label="phone <= 0.5\nentropy = 0.811\nsamples = 8\nvalue = [2, 6]\nclass = Yes"] ;
8 -> 9 ;
10 [label="entropy = 0.0\nsamples = 4\nvalue = [0, 4]\nclass = Yes"] ;
9 -> 10 ;
11 [label="years_at_residence <= 3.5\nentropy = 1.0\nsamples = 4\nvalue = [2, 2]\nclass = No"] ;
9 -> 11 ;
12 [label="entropy = 0.0\nsamples = 2\nvalue = [2, 0]\nclass = No"] ;
11 -> 12 ;
13 [label="entropy = 0.0\nsamples = 2\nvalue = [0, 2]\nclass = Yes"] ;
11 -> 13 ;
14 [label="entropy = 0.0\nsamples = 4\nvalue = [4, 0]\nclass = No"] ;
8 -> 14 ;
15 [label="entropy = 0.0\nsamples = 19\nvalue = [19, 0]\nclass = No"] ;
3 -> 15 ;
16 [label="credit_history <= 3.5\nentropy = 0.972\nsamples = 162\nvalue = [97, 65]\nclass = No"] ;
2 -> 16 ;
17 [label="amount <= 1373.0\nentropy = 0.953\nsamples = 150\nvalue = [94, 56]\nclass = No"] ;
16 -> 17 ;
18 [label="purpose <= 2.0\nentropy = 0.999\nsamples = 66\nvalue = [34, 32]\nclass = No"] ;
17 -> 18 ;
19 [label="savings_balance <= 1.0\nentropy = 0.852\nsamples = 18\nvalue = [5, 13]\nclass = Yes"] ;
18 -> 19 ;
20 [label="entropy = 0.0\nsamples = 3\nvalue = [3, 0]\nclass = No"] ;
19 -> 20 ;
21 [label="amount <= 673.5\nentropy = 0.567\nsamples = 15\nvalue = [2, 13]\nclass = Yes"] ;
19 -> 21 ;
22 [label="entropy = 0.0\nsamples = 1\nvalue = [1, 0]\nclass = No"] ;
21 -> 22 ;
23 [label="age <= 22.5\nentropy = 0.371\nsamples = 14\nvalue = [1, 13]\nclass = Yes"] ;
21 -> 23 ;
24 [label="entropy = 0.0\nsamples = 1\nvalue = [1, 0]\nclass = No"] ;
23 -> 24 ;
25 [label="entropy = 0.0\nsamples = 13\nvalue = [0, 13]\nclass = Yes"] ;
23 -> 25 ;
26 [label="savings_balance <= 0.5\nentropy = 0.968\nsamples = 48\nvalue = [29, 19]\nclass = No"] ;
18 -> 26 ;
27 [label="entropy = 0.0\nsamples = 3\nvalue = [0, 3]\nclass = Yes"] ;
26 -> 27 ;
28 [label="checking_balance <= 0.5\nentropy = 0.939\nsamples = 45\nvalue = [29, 16]\nclass = No"] ;
26 -> 28 ;
29 [label="employment_duration <= 0.5\nentropy = 0.738\nsamples = 24\nvalue = [19, 5]\nclass = No"] ;
28 -> 29 ;
30 [label="years_at_residence <= 2.5\nentropy = 0.98\nsamples = 12\nvalue = [7, 5]\nclass = No"] ;
29 -> 30 ;
31 [label="entropy = 0.0\nsamples = 3\nvalue = [0, 3]\nclass = Yes"] ;
30 -> 31 ;
32 [label="amount <= 759.5\nentropy = 0.764\nsamples = 9\nvalue = [7, 2]\nclass = No"] ;
30 -> 32 ;
33 [label="entropy = 0.0\nsamples = 3\nvalue = [3, 0]\nclass = No"] ;
32 -> 33 ;
34 [label="percent_of_income <= 3.5\nentropy = 0.918\nsamples = 6\nvalue = [4, 2]\nclass = No"] ;
32 -> 34 ;
35 [label="entropy = 0.0\nsamples = 1\nvalue = [0, 1]\nclass = Yes"] ;
34 -> 35 ;
36 [label="amount <= 778.0\nentropy = 0.722\nsamples = 5\nvalue = [4, 1]\nclass = No"] ;
34 -> 36 ;
37 [label="entropy = 0.0\nsamples = 1\nvalue = [0, 1]\nclass = Yes"] ;
36 -> 37 ;
38 [label="entropy = 0.0\nsamples = 4\nvalue = [4, 0]\nclass = No"] ;
36 -> 38 ;
39 [label="entropy = 0.0\nsamples = 12\nvalue = [12, 0]\nclass = No"] ;
29 -> 39 ;
40 [label="months_loan_duration <= 16.5\nentropy = 0.998\nsamples = 21\nvalue = [10, 11]\nclass = Yes"] ;
28 -> 40 ;
41 [label="phone <= 0.5\nentropy = 0.977\nsamples = 17\nvalue = [10, 7]\nclass = No"] ;
40 -> 41 ;
42 [label="age <= 23.5\nentropy = 0.996\nsamples = 13\nvalue = [6, 7]\nclass = Yes"] ;
41 -> 42 ;
43 [label="entropy = 0.0\nsamples = 4\nvalue = [0, 4]\nclass = Yes"] ;
42 -> 43 ;
44 [label="amount <= 708.5\nentropy = 0.918\nsamples = 9\nvalue = [6, 3]\nclass = No"] ;
42 -> 44 ;
45 [label="entropy = 0.0\nsamples = 4\nvalue = [4, 0]\nclass = No"] ;
44 -> 45 ;
46 [label="percent_of_income <= 3.5\nentropy = 0.971\nsamples = 5\nvalue = [2, 3]\nclass = Yes"] ;
44 -> 46 ;
47 [label="entropy = 0.0\nsamples = 1\nvalue = [1, 0]\nclass = No"] ;
46 -> 47 ;
48 [label="age <= 27.5\nentropy = 0.811\nsamples = 4\nvalue = [1, 3]\nclass = Yes"] ;
46 -> 48 ;
49 [label="amount <= 1164.0\nentropy = 1.0\nsamples = 2\nvalue = [1, 1]\nclass = No"] ;
48 -> 49 ;
50 [label="entropy = 0.0\nsamples = 1\nvalue = [1, 0]\nclass = No"] ;
49 -> 50 ;
51 [label="entropy = 0.0\nsamples = 1\nvalue = [0, 1]\nclass = Yes"] ;
49 -> 51 ;
52 [label="entropy = 0.0\nsamples = 2\nvalue = [0, 2]\nclass = Yes"] ;
48 -> 52 ;
53 [label="entropy = 0.0\nsamples = 4\nvalue = [4, 0]\nclass = No"] ;
41 -> 53 ;
54 [label="entropy = 0.0\nsamples = 4\nvalue = [0, 4]\nclass = Yes"] ;
40 -> 54 ;
55 [label="employment_duration <= 1.5\nentropy = 0.863\nsamples = 84\nvalue = [60, 24]\nclass = No"] ;
17 -> 55 ;
56 [label="checking_balance <= 0.5\nentropy = 0.601\nsamples = 41\nvalue = [35, 6]\nclass = No"] ;
55 -> 56 ;
57 [label="entropy = 0.0\nsamples = 18\nvalue = [18, 0]\nclass = No"] ;
56 -> 57 ;
58 [label="age <= 22.5\nentropy = 0.828\nsamples = 23\nvalue = [17, 6]\nclass = No"] ;
56 -> 58 ;
59 [label="entropy = 0.0\nsamples = 2\nvalue = [0, 2]\nclass = Yes"] ;
58 -> 59 ;
60 [label="existing_loans_count <= 1.5\nentropy = 0.702\nsamples = 21\nvalue = [17, 4]\nclass = No"] ;
58 -> 60 ;
61 [label="amount <= 3805.0\nentropy = 0.323\nsamples = 17\nvalue = [16, 1]\nclass = No"] ;
60 -> 61 ;
62 [label="entropy = 0.0\nsamples = 15\nvalue = [15, 0]\nclass = No"] ;
61 -> 62 ;
63 [label="dependents <= 1.5\nentropy = 1.0\nsamples = 2\nvalue = [1, 1]\nclass = No"] ;
61 -> 63 ;
64 [label="entropy = 0.0\nsamples = 1\nvalue = [0, 1]\nclass = Yes"] ;
63 -> 64 ;
65 [label="entropy = 0.0\nsamples = 1\nvalue = [1, 0]\nclass = No"] ;
63 -> 65 ;
66 [label="percent_of_income <= 2.5\nentropy = 0.811\nsamples = 4\nvalue = [1, 3]\nclass = Yes"] ;
60 -> 66 ;
67 [label="entropy = 0.0\nsamples = 1\nvalue = [1, 0]\nclass = No"] ;
66 -> 67 ;
68 [label="entropy = 0.0\nsamples = 3\nvalue = [0, 3]\nclass = Yes"] ;
66 -> 68 ;
69 [label="amount <= 7491.5\nentropy = 0.981\nsamples = 43\nvalue = [25, 18]\nclass = No"] ;
55 -> 69 ;
70 [label="age <= 28.5\nentropy = 0.942\nsamples = 39\nvalue = [25, 14]\nclass = No"] ;
69 -> 70 ;
71 [label="amount <= 3528.5\nentropy = 0.998\nsamples = 21\nvalue = [10, 11]\nclass = Yes"] ;
70 -> 71 ;
72 [label="credit_history <= 1.5\nentropy = 0.937\nsamples = 17\nvalue = [6, 11]\nclass = Yes"] ;
71 -> 72 ;
73 [label="employment_duration <= 2.5\nentropy = 1.0\nsamples = 12\nvalue = [6, 6]\nclass = No"] ;
72 -> 73 ;
74 [label="amount <= 2012.5\nentropy = 0.971\nsamples = 10\nvalue = [6, 4]\nclass = No"] ;
73 -> 74 ;
75 [label="age <= 22.5\nentropy = 0.918\nsamples = 6\nvalue = [2, 4]\nclass = Yes"] ;
74 -> 75 ;
76 [label="months_loan_duration <= 10.0\nentropy = 0.918\nsamples = 3\nvalue = [2, 1]\nclass = No"] ;
75 -> 76 ;
77 [label="entropy = 0.0\nsamples = 1\nvalue = [0, 1]\nclass = Yes"] ;
76 -> 77 ;
78 [label="entropy = 0.0\nsamples = 2\nvalue = [2, 0]\nclass = No"] ;
76 -> 78 ;
79 [label="entropy = 0.0\nsamples = 3\nvalue = [0, 3]\nclass = Yes"] ;
75 -> 79 ;
80 [label="entropy = 0.0\nsamples = 4\nvalue = [4, 0]\nclass = No"] ;
74 -> 80 ;
81 [label="entropy = 0.0\nsamples = 2\nvalue = [0, 2]\nclass = Yes"] ;
73 -> 81 ;
82 [label="entropy = 0.0\nsamples = 5\nvalue = [0, 5]\nclass = Yes"] ;
72 -> 82 ;
83 [label="entropy = 0.0\nsamples = 4\nvalue = [4, 0]\nclass = No"] ;
71 -> 83 ;
84 [label="job <= 2.0\nentropy = 0.65\nsamples = 18\nvalue = [15, 3]\nclass = No"] ;
70 -> 84 ;
85 [label="credit_history <= 2.5\nentropy = 0.337\nsamples = 16\nvalue = [15, 1]\nclass = No"] ;
84 -> 85 ;
86 [label="entropy = 0.0\nsamples = 14\nvalue = [14, 0]\nclass = No"] ;
85 -> 86 ;
87 [label="purpose <= 2.0\nentropy = 1.0\nsamples = 2\nvalue = [1, 1]\nclass = No"] ;
85 -> 87 ;
88 [label="entropy = 0.0\nsamples = 1\nvalue = [1, 0]\nclass = No"] ;
87 -> 88 ;
89 [label="entropy = 0.0\nsamples = 1\nvalue = [0, 1]\nclass = Yes"] ;
87 -> 89 ;
90 [label="entropy = 0.0\nsamples = 2\nvalue = [0, 2]\nclass = Yes"] ;
84 -> 90 ;
91 [label="entropy = 0.0\nsamples = 4\nvalue = [0, 4]\nclass = Yes"] ;
69 -> 91 ;
92 [label="purpose <= 2.0\nentropy = 0.811\nsamples = 12\nvalue = [3, 9]\nclass = Yes"] ;
16 -> 92 ;
93 [label="entropy = 0.0\nsamples = 6\nvalue = [0, 6]\nclass = Yes"] ;
92 -> 93 ;
94 [label="employment_duration <= 1.0\nentropy = 1.0\nsamples = 6\nvalue = [3, 3]\nclass = No"] ;
92 -> 94 ;
95 [label="other_credit <= 1.5\nentropy = 0.811\nsamples = 4\nvalue = [1, 3]\nclass = Yes"] ;
94 -> 95 ;
96 [label="entropy = 0.0\nsamples = 3\nvalue = [0, 3]\nclass = Yes"] ;
95 -> 96 ;
97 [label="entropy = 0.0\nsamples = 1\nvalue = [1, 0]\nclass = No"] ;
95 -> 97 ;
98 [label="entropy = 0.0\nsamples = 2\nvalue = [2, 0]\nclass = No"] ;
94 -> 98 ;
99 [label="savings_balance <= 2.5\nentropy = 0.984\nsamples = 169\nvalue = [72, 97]\nclass = Yes"] ;
1 -> 99 ;
100 [label="amount <= 11025.0\nentropy = 0.941\nsamples = 137\nvalue = [49, 88]\nclass = Yes"] ;
99 -> 100 ;
101 [label="percent_of_income <= 2.5\nentropy = 0.964\nsamples = 126\nvalue = [49, 77]\nclass = Yes"] ;
100 -> 101 ;
102 [label="amount <= 2182.0\nentropy = 0.989\nsamples = 41\nvalue = [23, 18]\nclass = No"] ;
101 -> 102 ;
103 [label="entropy = 0.0\nsamples = 3\nvalue = [0, 3]\nclass = Yes"] ;
102 -> 103 ;
104 [label="dependents <= 1.5\nentropy = 0.968\nsamples = 38\nvalue = [23, 15]\nclass = No"] ;
102 -> 104 ;
105 [label="years_at_residence <= 2.5\nentropy = 0.997\nsamples = 32\nvalue = [17, 15]\nclass = No"] ;
104 -> 105 ;
106 [label="purpose <= 2.5\nentropy = 0.896\nsamples = 16\nvalue = [11, 5]\nclass = No"] ;
105 -> 106 ;
107 [label="entropy = 0.0\nsamples = 7\nvalue = [7, 0]\nclass = No"] ;
106 -> 107 ;
108 [label="months_loan_duration <= 34.5\nentropy = 0.991\nsamples = 9\nvalue = [4, 5]\nclass = Yes"] ;
106 -> 108 ;
109 [label="years_at_residence <= 1.5\nentropy = 0.918\nsamples = 6\nvalue = [4, 2]\nclass = No"] ;
108 -> 109 ;
110 [label="checking_balance <= 0.5\nentropy = 0.918\nsamples = 3\nvalue = [1, 2]\nclass = Yes"] ;
109 -> 110 ;
111 [label="entropy = 0.0\nsamples = 1\nvalue = [1, 0]\nclass = No"] ;
110 -> 111 ;
112 [label="entropy = 0.0\nsamples = 2\nvalue = [0, 2]\nclass = Yes"] ;
110 -> 112 ;
113 [label="entropy = 0.0\nsamples = 3\nvalue = [3, 0]\nclass = No"] ;
109 -> 113 ;
114 [label="entropy = 0.0\nsamples = 3\nvalue = [0, 3]\nclass = Yes"] ;
108 -> 114 ;
115 [label="months_loan_duration <= 25.5\nentropy = 0.954\nsamples = 16\nvalue = [6, 10]\nclass = Yes"] ;
105 -> 115 ;
116 [label="age <= 31.5\nentropy = 0.722\nsamples = 5\nvalue = [4, 1]\nclass = No"] ;
115 -> 116 ;
117 [label="age <= 29.5\nentropy = 1.0\nsamples = 2\nvalue = [1, 1]\nclass = No"] ;
116 -> 117 ;
118 [label="entropy = 0.0\nsamples = 1\nvalue = [1, 0]\nclass = No"] ;
117 -> 118 ;
119 [label="entropy = 0.0\nsamples = 1\nvalue = [0, 1]\nclass = Yes"] ;
117 -> 119 ;
120 [label="entropy = 0.0\nsamples = 3\nvalue = [3, 0]\nclass = No"] ;
116 -> 120 ;
121 [label="savings_balance <= 0.5\nentropy = 0.684\nsamples = 11\nvalue = [2, 9]\nclass = Yes"] ;
115 -> 121 ;
122 [label="existing_loans_count <= 3.0\nentropy = 1.0\nsamples = 4\nvalue = [2, 2]\nclass = No"] ;
121 -> 122 ;
123 [label="amount <= 4814.0\nentropy = 0.918\nsamples = 3\nvalue = [2, 1]\nclass = No"] ;
122 -> 123 ;
124 [label="entropy = 0.0\nsamples = 1\nvalue = [0, 1]\nclass = Yes"] ;
123 -> 124 ;
125 [label="entropy = 0.0\nsamples = 2\nvalue = [2, 0]\nclass = No"] ;
123 -> 125 ;
126 [label="entropy = 0.0\nsamples = 1\nvalue = [0, 1]\nclass = Yes"] ;
122 -> 126 ;
127 [label="entropy = 0.0\nsamples = 7\nvalue = [0, 7]\nclass = Yes"] ;
121 -> 127 ;
128 [label="entropy = 0.0\nsamples = 6\nvalue = [6, 0]\nclass = No"] ;
104 -> 128 ;
129 [label="amount <= 4832.5\nentropy = 0.888\nsamples = 85\nvalue = [26, 59]\nclass = Yes"] ;
101 -> 129 ;
130 [label="age <= 62.0\nentropy = 0.949\nsamples = 68\nvalue = [25, 43]\nclass = Yes"] ;
129 -> 130 ;
131 [label="housing <= 1.5\nentropy = 0.923\nsamples = 65\nvalue = [22, 43]\nclass = Yes"] ;
130 -> 131 ;
132 [label="age <= 22.5\nentropy = 0.977\nsamples = 51\nvalue = [21, 30]\nclass = Yes"] ;
131 -> 132 ;
133 [label="entropy = 0.0\nsamples = 4\nvalue = [4, 0]\nclass = No"] ;
132 -> 133 ;
134 [label="amount <= 4113.0\nentropy = 0.944\nsamples = 47\nvalue = [17, 30]\nclass = Yes"] ;
132 -> 134 ;
135 [label="other_credit <= 0.5\nentropy = 0.902\nsamples = 44\nvalue = [14, 30]\nclass = Yes"] ;
134 -> 135 ;
136 [label="entropy = 0.0\nsamples = 6\nvalue = [0, 6]\nclass = Yes"] ;
135 -> 136 ;
137 [label="employment_duration <= 0.5\nentropy = 0.949\nsamples = 38\nvalue = [14, 24]\nclass = Yes"] ;
135 -> 137 ;
138 [label="existing_loans_count <= 1.5\nentropy = 0.544\nsamples = 8\nvalue = [1, 7]\nclass = Yes"] ;
137 -> 138 ;
139 [label="entropy = 0.0\nsamples = 6\nvalue = [0, 6]\nclass = Yes"] ;
138 -> 139 ;
140 [label="phone <= 0.5\nentropy = 1.0\nsamples = 2\nvalue = [1, 1]\nclass = No"] ;
138 -> 140 ;
141 [label="entropy = 0.0\nsamples = 1\nvalue = [0, 1]\nclass = Yes"] ;
140 -> 141 ;
142 [label="entropy = 0.0\nsamples = 1\nvalue = [1, 0]\nclass = No"] ;
140 -> 142 ;
143 [label="other_credit <= 1.5\nentropy = 0.987\nsamples = 30\nvalue = [13, 17]\nclass = Yes"] ;
137 -> 143 ;
144 [label="savings_balance <= 0.5\nentropy = 0.999\nsamples = 27\nvalue = [13, 14]\nclass = Yes"] ;
143 -> 144 ;
145 [label="entropy = 0.0\nsamples = 4\nvalue = [4, 0]\nclass = No"] ;
144 -> 145 ;
146 [label="credit_history <= 1.5\nentropy = 0.966\nsamples = 23\nvalue = [9, 14]\nclass = Yes"] ;
144 -> 146 ;
147 [label="age <= 47.0\nentropy = 0.998\nsamples = 19\nvalue = [9, 10]\nclass = Yes"] ;
146 -> 147 ;
148 [label="years_at_residence <= 2.0\nentropy = 0.954\nsamples = 16\nvalue = [6, 10]\nclass = Yes"] ;
147 -> 148 ;
149 [label="amount <= 2288.0\nentropy = 0.918\nsamples = 6\nvalue = [4, 2]\nclass = No"] ;
148 -> 149 ;
150 [label="entropy = 0.0\nsamples = 3\nvalue = [3, 0]\nclass = No"] ;
149 -> 150 ;
151 [label="purpose <= 0.5\nentropy = 0.918\nsamples = 3\nvalue = [1, 2]\nclass = Yes"] ;
149 -> 151 ;
152 [label="entropy = 0.0\nsamples = 1\nvalue = [1, 0]\nclass = No"] ;
151 -> 152 ;
153 [label="entropy = 0.0\nsamples = 2\nvalue = [0, 2]\nclass = Yes"] ;
151 -> 153 ;
154 [label="employment_duration <= 2.5\nentropy = 0.722\nsamples = 10\nvalue = [2, 8]\nclass = Yes"] ;
148 -> 154 ;
155 [label="entropy = 0.0\nsamples = 7\nvalue = [0, 7]\nclass = Yes"] ;
154 -> 155 ;
156 [label="existing_loans_count <= 1.5\nentropy = 0.918\nsamples = 3\nvalue = [2, 1]\nclass = No"] ;
154 -> 156 ;
157 [label="entropy = 0.0\nsamples = 2\nvalue = [2, 0]\nclass = No"] ;
156 -> 157 ;
158 [label="entropy = 0.0\nsamples = 1\nvalue = [0, 1]\nclass = Yes"] ;
156 -> 158 ;
159 [label="entropy = 0.0\nsamples = 3\nvalue = [3, 0]\nclass = No"] ;
147 -> 159 ;
160 [label="entropy = 0.0\nsamples = 4\nvalue = [0, 4]\nclass = Yes"] ;
146 -> 160 ;
161 [label="entropy = 0.0\nsamples = 3\nvalue = [0, 3]\nclass = Yes"] ;
143 -> 161 ;
162 [label="entropy = 0.0\nsamples = 3\nvalue = [3, 0]\nclass = No"] ;
134 -> 162 ;
163 [label="savings_balance <= 1.0\nentropy = 0.371\nsamples = 14\nvalue = [1, 13]\nclass = Yes"] ;
131 -> 163 ;
164 [label="credit_history <= 2.5\nentropy = 0.918\nsamples = 3\nvalue = [1, 2]\nclass = Yes"] ;
163 -> 164 ;
165 [label="entropy = 0.0\nsamples = 2\nvalue = [0, 2]\nclass = Yes"] ;
164 -> 165 ;
166 [label="entropy = 0.0\nsamples = 1\nvalue = [1, 0]\nclass = No"] ;
164 -> 166 ;
167 [label="entropy = 0.0\nsamples = 11\nvalue = [0, 11]\nclass = Yes"] ;
163 -> 167 ;
168 [label="entropy = 0.0\nsamples = 3\nvalue = [3, 0]\nclass = No"] ;
130 -> 168 ;
169 [label="years_at_residence <= 1.5\nentropy = 0.323\nsamples = 17\nvalue = [1, 16]\nclass = Yes"] ;
129 -> 169 ;
170 [label="entropy = 0.0\nsamples = 1\nvalue = [1, 0]\nclass = No"] ;
169 -> 170 ;
171 [label="entropy = 0.0\nsamples = 16\nvalue = [0, 16]\nclass = Yes"] ;
169 -> 171 ;
172 [label="entropy = 0.0\nsamples = 11\nvalue = [0, 11]\nclass = Yes"] ;
100 -> 172 ;
173 [label="checking_balance <= 0.5\nentropy = 0.857\nsamples = 32\nvalue = [23, 9]\nclass = No"] ;
99 -> 173 ;
174 [label="amount <= 10059.0\nentropy = 0.454\nsamples = 21\nvalue = [19, 2]\nclass = No"] ;
173 -> 174 ;
175 [label="entropy = 0.0\nsamples = 17\nvalue = [17, 0]\nclass = No"] ;
174 -> 175 ;
176 [label="percent_of_income <= 1.5\nentropy = 1.0\nsamples = 4\nvalue = [2, 2]\nclass = No"] ;
174 -> 176 ;
177 [label="entropy = 0.0\nsamples = 2\nvalue = [0, 2]\nclass = Yes"] ;
176 -> 177 ;
178 [label="entropy = 0.0\nsamples = 2\nvalue = [2, 0]\nclass = No"] ;
176 -> 178 ;
179 [label="age <= 48.0\nentropy = 0.946\nsamples = 11\nvalue = [4, 7]\nclass = Yes"] ;
173 -> 179 ;
180 [label="percent_of_income <= 2.5\nentropy = 0.544\nsamples = 8\nvalue = [1, 7]\nclass = Yes"] ;
179 -> 180 ;
181 [label="age <= 23.0\nentropy = 1.0\nsamples = 2\nvalue = [1, 1]\nclass = No"] ;
180 -> 181 ;
182 [label="entropy = 0.0\nsamples = 1\nvalue = [0, 1]\nclass = Yes"] ;
181 -> 182 ;
183 [label="entropy = 0.0\nsamples = 1\nvalue = [1, 0]\nclass = No"] ;
181 -> 183 ;
184 [label="entropy = 0.0\nsamples = 6\nvalue = [0, 6]\nclass = Yes"] ;
180 -> 184 ;
185 [label="entropy = 0.0\nsamples = 3\nvalue = [3, 0]\nclass = No"] ;
179 -> 185 ;
186 [label="credit_history <= 0.5\nentropy = 0.592\nsamples = 322\nvalue = [276, 46]\nclass = No"] ;
0 -> 186 [labeldistance=2.5, labelangle=-45, headlabel="False"] ;
187 [label="other_credit <= 0.5\nentropy = 0.351\nsamples = 121\nvalue = [113, 8]\nclass = No"] ;
186 -> 187 ;
188 [label="age <= 39.0\nentropy = 0.918\nsamples = 12\nvalue = [8, 4]\nclass = No"] ;
187 -> 188 ;
189 [label="amount <= 2159.0\nentropy = 0.985\nsamples = 7\nvalue = [3, 4]\nclass = Yes"] ;
188 -> 189 ;
190 [label="entropy = 0.0\nsamples = 3\nvalue = [0, 3]\nclass = Yes"] ;
189 -> 190 ;
191 [label="purpose <= 1.5\nentropy = 0.811\nsamples = 4\nvalue = [3, 1]\nclass = No"] ;
189 -> 191 ;
192 [label="entropy = 0.0\nsamples = 1\nvalue = [0, 1]\nclass = Yes"] ;
191 -> 192 ;
193 [label="entropy = 0.0\nsamples = 3\nvalue = [3, 0]\nclass = No"] ;
191 -> 193 ;
194 [label="entropy = 0.0\nsamples = 5\nvalue = [5, 0]\nclass = No"] ;
188 -> 194 ;
195 [label="other_credit <= 1.5\nentropy = 0.227\nsamples = 109\nvalue = [105, 4]\nclass = No"] ;
187 -> 195 ;
196 [label="amount <= 11867.0\nentropy = 0.137\nsamples = 104\nvalue = [102, 2]\nclass = No"] ;
195 -> 196 ;
197 [label="existing_loans_count <= 2.5\nentropy = 0.079\nsamples = 103\nvalue = [102, 1]\nclass = No"] ;
196 -> 197 ;
198 [label="entropy = 0.0\nsamples = 95\nvalue = [95, 0]\nclass = No"] ;
197 -> 198 ;
199 [label="checking_balance <= 2.5\nentropy = 0.544\nsamples = 8\nvalue = [7, 1]\nclass = No"] ;
197 -> 199 ;
200 [label="entropy = 0.0\nsamples = 1\nvalue = [0, 1]\nclass = Yes"] ;
199 -> 200 ;
201 [label="entropy = 0.0\nsamples = 7\nvalue = [7, 0]\nclass = No"] ;
199 -> 201 ;
202 [label="entropy = 0.0\nsamples = 1\nvalue = [0, 1]\nclass = Yes"] ;
196 -> 202 ;
203 [label="purpose <= 2.5\nentropy = 0.971\nsamples = 5\nvalue = [3, 2]\nclass = No"] ;
195 -> 203 ;
204 [label="entropy = 0.0\nsamples = 2\nvalue = [0, 2]\nclass = Yes"] ;
203 -> 204 ;
205 [label="entropy = 0.0\nsamples = 3\nvalue = [3, 0]\nclass = No"] ;
203 -> 205 ;
206 [label="purpose <= 0.5\nentropy = 0.699\nsamples = 201\nvalue = [163, 38]\nclass = No"] ;
186 -> 206 ;
207 [label="amount <= 1825.5\nentropy = 0.985\nsamples = 21\nvalue = [12, 9]\nclass = No"] ;
206 -> 207 ;
208 [label="entropy = 0.0\nsamples = 6\nvalue = [6, 0]\nclass = No"] ;
207 -> 208 ;
209 [label="other_credit <= 0.5\nentropy = 0.971\nsamples = 15\nvalue = [6, 9]\nclass = Yes"] ;
207 -> 209 ;
210 [label="entropy = 0.0\nsamples = 4\nvalue = [0, 4]\nclass = Yes"] ;
209 -> 210 ;
211 [label="years_at_residence <= 2.5\nentropy = 0.994\nsamples = 11\nvalue = [6, 5]\nclass = No"] ;
209 -> 211 ;
212 [label="months_loan_duration <= 21.0\nentropy = 0.811\nsamples = 8\nvalue = [6, 2]\nclass = No"] ;
211 -> 212 ;
213 [label="months_loan_duration <= 14.5\nentropy = 0.918\nsamples = 3\nvalue = [1, 2]\nclass = Yes"] ;
212 -> 213 ;
214 [label="entropy = 0.0\nsamples = 1\nvalue = [1, 0]\nclass = No"] ;
213 -> 214 ;
215 [label="entropy = 0.0\nsamples = 2\nvalue = [0, 2]\nclass = Yes"] ;
213 -> 215 ;
216 [label="entropy = 0.0\nsamples = 5\nvalue = [5, 0]\nclass = No"] ;
212 -> 216 ;
217 [label="entropy = 0.0\nsamples = 3\nvalue = [0, 3]\nclass = Yes"] ;
211 -> 217 ;
218 [label="existing_loans_count <= 1.5\nentropy = 0.637\nsamples = 180\nvalue = [151, 29]\nclass = No"] ;
206 -> 218 ;
219 [label="savings_balance <= 2.5\nentropy = 0.556\nsamples = 139\nvalue = [121, 18]\nclass = No"] ;
218 -> 219 ;
220 [label="job <= 2.5\nentropy = 0.662\nsamples = 99\nvalue = [82, 17]\nclass = No"] ;
219 -> 220 ;
221 [label="other_credit <= 1.5\nentropy = 0.552\nsamples = 78\nvalue = [68, 10]\nclass = No"] ;
220 -> 221 ;
222 [label="amount <= 475.5\nentropy = 0.485\nsamples = 76\nvalue = [68, 8]\nclass = No"] ;
221 -> 222 ;
223 [label="entropy = 0.0\nsamples = 1\nvalue = [0, 1]\nclass = Yes"] ;
222 -> 223 ;
224 [label="purpose <= 4.5\nentropy = 0.447\nsamples = 75\nvalue = [68, 7]\nclass = No"] ;
222 -> 224 ;
225 [label="amount <= 2569.5\nentropy = 0.406\nsamples = 74\nvalue = [68, 6]\nclass = No"] ;
224 -> 225 ;
226 [label="dependents <= 1.5\nentropy = 0.154\nsamples = 45\nvalue = [44, 1]\nclass = No"] ;
225 -> 226 ;
227 [label="entropy = 0.0\nsamples = 42\nvalue = [42, 0]\nclass = No"] ;
226 -> 227 ;
228 [label="purpose <= 2.5\nentropy = 0.918\nsamples = 3\nvalue = [2, 1]\nclass = No"] ;
226 -> 228 ;
229 [label="entropy = 0.0\nsamples = 1\nvalue = [0, 1]\nclass = Yes"] ;
228 -> 229 ;
230 [label="entropy = 0.0\nsamples = 2\nvalue = [2, 0]\nclass = No"] ;
228 -> 230 ;
231 [label="amount <= 2622.5\nentropy = 0.663\nsamples = 29\nvalue = [24, 5]\nclass = No"] ;
225 -> 231 ;
232 [label="entropy = 0.0\nsamples = 1\nvalue = [0, 1]\nclass = Yes"] ;
231 -> 232 ;
233 [label="purpose <= 2.0\nentropy = 0.592\nsamples = 28\nvalue = [24, 4]\nclass = No"] ;
231 -> 233 ;
234 [label="entropy = 0.0\nsamples = 10\nvalue = [10, 0]\nclass = No"] ;
233 -> 234 ;
235 [label="job <= 0.5\nentropy = 0.764\nsamples = 18\nvalue = [14, 4]\nclass = No"] ;
233 -> 235 ;
236 [label="credit_history <= 2.0\nentropy = 0.918\nsamples = 3\nvalue = [1, 2]\nclass = Yes"] ;
235 -> 236 ;
237 [label="entropy = 0.0\nsamples = 2\nvalue = [0, 2]\nclass = Yes"] ;
236 -> 237 ;
238 [label="entropy = 0.0\nsamples = 1\nvalue = [1, 0]\nclass = No"] ;
236 -> 238 ;
239 [label="amount <= 4091.0\nentropy = 0.567\nsamples = 15\nvalue = [13, 2]\nclass = No"] ;
235 -> 239 ;
240 [label="entropy = 0.0\nsamples = 9\nvalue = [9, 0]\nclass = No"] ;
239 -> 240 ;
241 [label="amount <= 4881.5\nentropy = 0.918\nsamples = 6\nvalue = [4, 2]\nclass = No"] ;
239 -> 241 ;
242 [label="employment_duration <= 2.5\nentropy = 0.918\nsamples = 3\nvalue = [1, 2]\nclass = Yes"] ;
241 -> 242 ;
243 [label="entropy = 0.0\nsamples = 2\nvalue = [0, 2]\nclass = Yes"] ;
242 -> 243 ;
244 [label="entropy = 0.0\nsamples = 1\nvalue = [1, 0]\nclass = No"] ;
242 -> 244 ;
245 [label="entropy = 0.0\nsamples = 3\nvalue = [3, 0]\nclass = No"] ;
241 -> 245 ;
246 [label="entropy = 0.0\nsamples = 1\nvalue = [0, 1]\nclass = Yes"] ;
224 -> 246 ;
247 [label="entropy = 0.0\nsamples = 2\nvalue = [0, 2]\nclass = Yes"] ;
221 -> 247 ;
248 [label="age <= 34.5\nentropy = 0.918\nsamples = 21\nvalue = [14, 7]\nclass = No"] ;
220 -> 248 ;
249 [label="age <= 24.5\nentropy = 0.954\nsamples = 8\nvalue = [3, 5]\nclass = Yes"] ;
248 -> 249 ;
250 [label="entropy = 0.0\nsamples = 2\nvalue = [2, 0]\nclass = No"] ;
249 -> 250 ;
251 [label="employment_duration <= 2.5\nentropy = 0.65\nsamples = 6\nvalue = [1, 5]\nclass = Yes"] ;
249 -> 251 ;
252 [label="entropy = 0.0\nsamples = 5\nvalue = [0, 5]\nclass = Yes"] ;
251 -> 252 ;
253 [label="entropy = 0.0\nsamples = 1\nvalue = [1, 0]\nclass = No"] ;
251 -> 253 ;
254 [label="dependents <= 1.5\nentropy = 0.619\nsamples = 13\nvalue = [11, 2]\nclass = No"] ;
248 -> 254 ;
255 [label="entropy = 0.0\nsamples = 9\nvalue = [9, 0]\nclass = No"] ;
254 -> 255 ;
256 [label="age <= 41.5\nentropy = 1.0\nsamples = 4\nvalue = [2, 2]\nclass = No"] ;
254 -> 256 ;
257 [label="entropy = 0.0\nsamples = 2\nvalue = [2, 0]\nclass = No"] ;
256 -> 257 ;
258 [label="entropy = 0.0\nsamples = 2\nvalue = [0, 2]\nclass = Yes"] ;
256 -> 258 ;
259 [label="job <= 2.5\nentropy = 0.169\nsamples = 40\nvalue = [39, 1]\nclass = No"] ;
219 -> 259 ;
260 [label="entropy = 0.0\nsamples = 32\nvalue = [32, 0]\nclass = No"] ;
259 -> 260 ;
261 [label="age <= 30.0\nentropy = 0.544\nsamples = 8\nvalue = [7, 1]\nclass = No"] ;
259 -> 261 ;
262 [label="months_loan_duration <= 8.0\nentropy = 1.0\nsamples = 2\nvalue = [1, 1]\nclass = No"] ;
261 -> 262 ;
263 [label="entropy = 0.0\nsamples = 1\nvalue = [1, 0]\nclass = No"] ;
262 -> 263 ;
264 [label="entropy = 0.0\nsamples = 1\nvalue = [0, 1]\nclass = Yes"] ;
262 -> 264 ;
265 [label="entropy = 0.0\nsamples = 6\nvalue = [6, 0]\nclass = No"] ;
261 -> 265 ;
266 [label="amount <= 1299.5\nentropy = 0.839\nsamples = 41\nvalue = [30, 11]\nclass = No"] ;
218 -> 266 ;
267 [label="entropy = 0.0\nsamples = 9\nvalue = [9, 0]\nclass = No"] ;
266 -> 267 ;
268 [label="credit_history <= 2.5\nentropy = 0.928\nsamples = 32\nvalue = [21, 11]\nclass = No"] ;
266 -> 268 ;
269 [label="amount <= 3521.5\nentropy = 0.997\nsamples = 15\nvalue = [7, 8]\nclass = Yes"] ;
268 -> 269 ;
270 [label="months_loan_duration <= 10.5\nentropy = 0.881\nsamples = 10\nvalue = [7, 3]\nclass = No"] ;
269 -> 270 ;
271 [label="entropy = 0.0\nsamples = 2\nvalue = [0, 2]\nclass = Yes"] ;
270 -> 271 ;
272 [label="savings_balance <= 1.5\nentropy = 0.544\nsamples = 8\nvalue = [7, 1]\nclass = No"] ;
270 -> 272 ;
273 [label="entropy = 0.0\nsamples = 1\nvalue = [0, 1]\nclass = Yes"] ;
272 -> 273 ;
274 [label="entropy = 0.0\nsamples = 7\nvalue = [7, 0]\nclass = No"] ;
272 -> 274 ;
275 [label="entropy = 0.0\nsamples = 5\nvalue = [0, 5]\nclass = Yes"] ;
269 -> 275 ;
276 [label="percent_of_income <= 3.5\nentropy = 0.672\nsamples = 17\nvalue = [14, 3]\nclass = No"] ;
268 -> 276 ;
277 [label="entropy = 0.0\nsamples = 11\nvalue = [11, 0]\nclass = No"] ;
276 -> 277 ;
278 [label="dependents <= 1.5\nentropy = 1.0\nsamples = 6\nvalue = [3, 3]\nclass = No"] ;
276 -> 278 ;
279 [label="years_at_residence <= 2.5\nentropy = 0.811\nsamples = 4\nvalue = [3, 1]\nclass = No"] ;
278 -> 279 ;
280 [label="entropy = 0.0\nsamples = 1\nvalue = [0, 1]\nclass = Yes"] ;
279 -> 280 ;
281 [label="entropy = 0.0\nsamples = 3\nvalue = [3, 0]\nclass = No"] ;
279 -> 281 ;
282 [label="entropy = 0.0\nsamples = 2\nvalue = [0, 2]\nclass = Yes"] ;
278 -> 282 ;
}